{"learner":{"attributes":{"best_iteration":"54","best_ntree_limit":"55","scikit_learn":"{\"n_estimators\": 55, \"objective\": \"reg:squarederror\", \"max_depth\": 3, \"max_leaves\": null, \"max_bin\": null, \"grow_policy\": null, \"learning_rate\": 0.3, \"verbosity\": null, \"booster\": null, \"tree_method\": null, \"gamma\": 0.02, \"min_child_weight\": 3, \"max_delta_step\": null, \"subsample\": null, \"sampling_method\": null, \"colsample_bytree\": 0.8, \"colsample_bylevel\": null, \"colsample_bynode\": null, \"reg_alpha\": null, \"reg_lambda\": null, \"scale_pos_weight\": null, \"base_score\": null, \"missing\": NaN, \"num_parallel_tree\": null, \"random_state\": null, \"n_jobs\": null, \"monotone_constraints\": null, \"interaction_constraints\": null, \"importance_type\": null, \"gpu_id\": null, \"validate_parameters\": null, \"predictor\": null, \"enable_categorical\": false, \"feature_types\": null, \"max_cat_to_onehot\": null, \"max_cat_threshold\": null, \"eval_metric\": [\"error\", \"logloss\", \"rmse\"], \"early_stopping_rounds\": null, \"callbacks\": null, \"kwargs\": {\"nthread\": 5}, \"_estimator_type\": \"regressor\"}"},"feature_names":[],"feature_types":[],"gradient_booster":{"model":{"gbtree_model_param":{"num_parallel_tree":"1","num_trees":"55","size_leaf_vector":"0"},"tree_info":[0,0,0,0,0,0,0,0,0,0,0,0,0,0,0,0,0,0,0,0,0,0,0,0,0,0,0,0,0,0,0,0,0,0,0,0,0,0,0,0,0,0,0,0,0,0,0,0,0,0,0,0,0,0,0],"trees":[{"base_weights":[1.3804122E4,1.2604558E4,1.4754474E4],"categories":[],"categories_nodes":[],"categories_segments":[],"categories_sizes":[],"default_left":[1,0,0],"id":0,"left_children":[1,-1,-1],"loss_changes":[1.1193221E9,0E0,0E0],"parents":[2147483647,0,0],"right_children":[2,-1,-1],"split_conditions":[-1.8659672E-1,3.7813674E3,4.4263423E3],"split_indices":[16,0,0],"split_type":[0,0,0],"sum_hessian":[1.144E3,5.12E2,6.32E2],"tree_param":{"num_deleted":"0","num_feature":"21","num_nodes":"3","size_leaf_vector":"0"}},{"base_weights":[9.670054E3,8.830562E3,1.0335125E4,8.357019E3,9.154877E3,1.0390796E4,7.8557603E3],"categories":[],"categories_nodes":[],"categories_segments":[],"categories_sizes":[],"default_left":[1,1,1,0,0,0,0],"id":1,"left_children":[1,3,5,-1,-1,-1,-1],"loss_changes":[5.48012E8,2.277376E6,5.750784E6,0E0,0E0,0E0,0E0],"parents":[2147483647,0,0,1,1,2,2],"right_children":[2,4,6,-1,-1,-1,-1],"split_conditions":[-1.8659672E-1,-1.0881834E0,5E-1,2.5071057E3,2.7464631E3,3.117239E3,2.3567283E3],"split_indices":[16,16,6,0,0,0,0],"split_type":[0,0,0,0,0,0,0],"sum_hessian":[1.144E3,5.12E2,6.32E2,2.19E2,2.93E2,6.15E2,1.7E1],"tree_param":{"num_deleted":"0","num_feature":"21","num_nodes":"7","size_leaf_vector":"0"}},{"base_weights":[6.7784067E3,6.265246E3,7.3558716E3,6.300823E3,3.9583594E3,5.9847383E3,6.609479E3],"categories":[],"categories_nodes":[],"categories_segments":[],"categories_sizes":[],"default_left":[1,1,0,1,0,0,0],"id":2,"left_children":[1,3,-1,5,-1,-1,-1],"loss_changes":[2.9321216E8,2.5368576E7,0E0,1.9175424E7,0E0,0E0,0E0],"parents":[2147483647,0,0,1,1,3,3],"right_children":[2,4,-1,6,-1,-1,-1],"split_conditions":[1.1393216E-1,5E-1,2.2067615E3,-7.876545E-1,1.1875078E3,1.7954215E3,1.9828438E3],"split_indices":[16,6,0,16,0,0,0],"split_type":[0,0,0,0,0,0,0],"sum_hessian":[1.144E3,6.12E2,5.32E2,6.01E2,1.1E1,3.07E2,2.94E2],"tree_param":{"num_deleted":"0","num_feature":"21","num_nodes":"7","size_leaf_vector":"0"}},{"base_weights":[4.751149E3,4.472824E3,5.1206772E3,4.356684E3,5.2506567E3,4.942938E3,5.609009E3,4.3827007E3,2.2162236E3,4.559434E3,5.7554717E3,4.9842627E3,3.4437705E3],"categories":[],"categories_nodes":[],"categories_segments":[],"categories_sizes":[],"default_left":[1,1,1,1,1,1,0,0,0,0,0,0,0],"id":3,"left_children":[1,3,5,7,9,11,-1,-1,-1,-1,-1,-1,-1],"loss_changes":[9.485926E7,3.6837376E7,1.437184E7,2.2641664E7,2.0224E6,5.38624E6,0E0,0E0,0E0,0E0,0E0,0E0,0E0],"parents":[2147483647,0,0,1,1,2,2,3,3,4,4,5,5],"right_children":[2,4,6,8,10,12,-1,-1,-1,-1,-1,-1,-1],"split_conditions":[3.2012366E-2,5E-1,5E-1,5E-1,-1.3451705E0,5E-1,1.6827028E3,1.3148103E3,6.648671E2,1.3678303E3,1.7266416E3,1.4952788E3,1.0331312E3],"split_indices":[17,8,15,13,17,6,0,0,0,0,0,0,0],"split_type":[0,0,0,0,0,0,0,0,0,0,0,0,0],"sum_hessian":[1.144E3,6.6E2,4.84E2,5.8E2,8E1,3.63E2,1.21E2,5.72E2,8E0,3.8E1,4.2E1,3.51E2,1.2E1],"tree_param":{"num_deleted":"0","num_feature":"21","num_nodes":"13","size_leaf_vector":"0"}},{"base_weights":[3.3339136E3,2.9476694E3,3.5595103E3,2.8223599E3,3.292824E3,3.4132644E3,3.9776606E3,2.8485154E3,1.2421688E3,3.4695825E3,2.854582E3,4.071682E3,2.671981E3],"categories":[],"categories_nodes":[],"categories_segments":[],"categories_sizes":[],"default_left":[1,1,1,1,0,1,1,0,0,0,0,0,0],"id":4,"left_children":[1,3,5,7,-1,9,11,-1,-1,-1,-1,-1,-1],"loss_changes":[8.927744E7,9.217792E6,3.0331904E7,9.728768E6,0E0,7.054848E6,1.1217664E7,0E0,0E0,0E0,0E0,0E0,0E0],"parents":[2147483647,0,0,1,1,2,2,3,3,5,5,6,6],"right_children":[2,4,6,8,-1,10,12,-1,-1,-1,-1,-1,-1],"split_conditions":[-4.8712564E-1,5E-1,5E-1,5E-1,9.878472E2,5E-1,1.6165767E0,8.545546E2,3.7265067E2,1.0408748E3,8.5637463E2,1.2215046E3,8.015943E2],"split_indices":[16,15,15,6,0,5,16,0,0,0,0,0,0],"split_type":[0,0,0,0,0,0,0,0,0,0,0,0,0],"sum_hessian":[1.144E3,4.27E2,7.17E2,3.2E2,1.07E2,5.38E2,1.79E2,3.14E2,6E0,4.84E2,5.4E1,1.65E2,1.4E1],"tree_param":{"num_deleted":"0","num_feature":"21","num_nodes":"13","size_leaf_vector":"0"}},{"base_weights":[2.3390977E3,2.1357202E3,2.568612E3,2.204725E3,1.5778983E3,2.6378584E3,1.8139805E3,1.8967896E3,2.3295442E3,9.240589E2,1.6823679E3,2.6658936E3,1.6477078E3,2.6655598E3,-4.4453766E2],"categories":[],"categories_nodes":[],"categories_segments":[],"categories_sizes":[],"default_left":[1,1,1,1,1,1,1,0,0,0,0,0,0,0,0],"id":5,"left_children":[1,3,5,7,9,11,13,-1,-1,-1,-1,-1,-1,-1,-1],"loss_changes":[4.7960576E7,2.0116736E7,2.3067392E7,1.6452096E7,3.295152E6,9.097984E6,9.35037E7,0E0,0E0,0E0,0E0,0E0,0E0,0E0,0E0],"parents":[2147483647,0,0,1,1,2,2,3,3,4,4,5,5,6,6],"right_children":[2,4,6,8,10,12,14,-1,-1,-1,-1,-1,-1,-1,-1],"split_conditions":[1.1393216E-1,5E-1,1.6165767E0,-8.199955E-1,-1.3887124E0,5E-1,5E-1,5.6903687E2,6.988633E2,2.7721768E2,5.047104E2,7.997681E2,4.9431235E2,7.9966797E2,-1.333613E2],"split_indices":[16,5,16,19,16,6,0,0,0,0,0,0,0,0,0],"split_type":[0,0,0,0,0,0,0,0,0,0,0,0,0,0,0],"sum_hessian":[1.144E3,6.12E2,5.32E2,5.42E2,7E1,4.85E2,4.7E1,1.61E2,3.81E2,1.1E1,5.9E1,4.7E2,1.5E1,3.4E1,1.3E1],"tree_param":{"num_deleted":"0","num_feature":"21","num_nodes":"15","size_leaf_vector":"0"}},{"base_weights":[1.6408705E3,1.2705598E3,1.7270773E3,1.3671744E3,9.6320325E2,1.6283994E3,2.0220278E3,1.1920894E3,1.5179358E3,7.772863E2,1.0984218E3,1.6392024E3,3.262747E2,2.4448962E3,1.9017156E3],"categories":[],"categories_nodes":[],"categories_segments":[],"categories_sizes":[],"default_left":[1,1,1,1,1,1,1,0,0,0,0,0,0,0,0],"id":6,"left_children":[1,3,5,7,9,11,13,-1,-1,-1,-1,-1,-1,-1,-1],"loss_changes":[3.435776E7,5.216032E6,2.3658496E7,2.545856E6,5.5402E5,9.297792E6,6.950336E6,0E0,0E0,0E0,0E0,0E0,0E0,0E0,0E0],"parents":[2147483647,0,0,1,1,2,2,3,3,4,4,5,5,6,6],"right_children":[2,4,6,8,10,12,14,-1,-1,-1,-1,-1,-1,-1,-1],"split_conditions":[-1.0881834E0,5E-1,5E-1,-1.3887124E0,-1.3887124E0,5E-1,9.857192E-1,3.5762683E2,4.5538077E2,2.331859E2,3.2952655E2,4.9176074E2,9.788241E1,7.334689E2,5.705147E2],"split_indices":[16,11,15,16,16,13,19,0,0,0,0,0,0,0,0],"split_type":[0,0,0,0,0,0,0,0,0,0,0,0,0,0,0],"sum_hessian":[1.144E3,2.19E2,9.25E2,1.64E2,5.5E1,6.98E2,2.27E2,8E1,8.4E1,2.6E1,2.9E1,6.92E2,6E0,4.6E1,1.81E2],"tree_param":{"num_deleted":"0","num_feature":"21","num_nodes":"15","size_leaf_vector":"0"}},{"base_weights":[1.1514646E3,9.437325E2,1.2284796E3,9.594041E2,1.19360634E2,1.2769799E3,6.987964E2,7.7813794E2,1.0493293E3,-1.7269678E2,3.8157788E2,1.2221244E3,1.7163059E3,-3.2840613E2,9.748744E2],"categories":[],"categories_nodes":[],"categories_segments":[],"categories_sizes":[],"default_left":[1,1,1,1,1,1,1,0,0,0,0,0,0,0,0],"id":7,"left_children":[1,3,5,7,9,11,13,-1,-1,-1,-1,-1,-1,-1,-1],"loss_changes":[1.7158912E7,3.942144E6,2.0481664E7,4.204E6,6.019746E5,1.6242048E7,2.0738488E7,0E0,0E0,0E0,0E0,0E0,0E0,0E0,0E0],"parents":[2147483647,0,0,1,1,2,2,3,3,4,4,5,5,6,6],"right_children":[2,4,6,8,10,12,14,-1,-1,-1,-1,-1,-1,-1,-1],"split_conditions":[-7.876545E-1,5E-1,1.3643317E0,-1.3887124E0,8.286181E-2,5E-1,1.0155189E0,2.3344139E2,3.1479883E2,-5.1809036E1,1.14473366E2,3.6663733E2,5.148918E2,-9.852184E1,2.9246234E2],"split_indices":[16,6,17,16,19,9,16,0,0,0,0,0,0,0,0],"split_type":[0,0,0,0,0,0,0,0,0,0,0,0,0,0,0],"sum_hessian":[1.144E3,3.13E2,8.31E2,3.07E2,6E0,7.6E2,7.1E1,1.05E2,2.02E2,3E0,3E0,6.79E2,8.1E1,1.5E1,5.6E1],"tree_param":{"num_deleted":"0","num_feature":"21","num_nodes":"15","size_leaf_vector":"0"}},{"base_weights":[8.0749786E2,8.4700037E2,4.7238745E2,8.6517487E2,1.4451996E2,3.9007898E2,6.8504443E2,7.989767E2,1.0618823E3,-1.5049715E2,3.905668E2,2.6600592E2,6.216396E2],"categories":[],"categories_nodes":[],"categories_segments":[],"categories_sizes":[],"default_left":[1,1,1,1,1,1,0,0,0,0,0,0,0],"id":8,"left_children":[1,3,5,7,9,11,-1,-1,-1,-1,-1,-1,-1],"loss_changes":[1.4757056E7,1.2935808E7,1.885706E6,1.2134208E7,2.0186558E6,2.44911E6,0E0,0E0,0E0,0E0,0E0,0E0,0E0],"parents":[2147483647,0,0,1,1,2,2,3,3,4,4,5,5],"right_children":[2,4,6,8,10,12,-1,-1,-1,-1,-1,-1,-1],"split_conditions":[5E-1,5E-1,5E-1,5E-1,-2.1809064E-1,5E-1,2.0551334E2,2.3969301E2,3.185647E2,-4.5149147E1,1.17170044E2,7.980178E1,1.8649188E2],"split_indices":[5,6,15,15,19,12,0,0,0,0,0,0,0],"split_type":[0,0,0,0,0,0,0,0,0,0,0,0,0],"sum_hessian":[1.144E3,1.022E3,1.22E2,9.96E2,2.6E1,9E1,3.2E1,7.49E2,2.47E2,1.2E1,1.4E1,6E1,3E1],"tree_param":{"num_deleted":"0","num_feature":"21","num_nodes":"13","size_leaf_vector":"0"}},{"base_weights":[5.662108E2,4.629943E2,6.8385724E2,5.374389E2,2.4334991E2,7.339443E2,1.6247888E2,4.9460785E2,1.0102614E3,1.8071126E2,7.485677E2,6.852278E2,1.2326318E3,7.76986E2,-1.3853945E3],"categories":[],"categories_nodes":[],"categories_segments":[],"categories_sizes":[],"default_left":[1,1,1,1,1,1,1,0,0,0,0,0,0,0,0],"id":9,"left_children":[1,3,5,7,9,11,13,-1,-1,-1,-1,-1,-1,-1,-1],"loss_changes":[1.3587168E7,9.892592E6,1.3799648E7,8.75524E6,4.833173E6,1.0962416E7,4.6733036E7,0E0,0E0,0E0,0E0,0E0,0E0,0E0,0E0],"parents":[2147483647,0,0,1,1,2,2,3,3,4,4,5,5,6,6],"right_children":[2,4,6,8,10,12,14,-1,-1,-1,-1,-1,-1,-1,-1],"split_conditions":[1.1393216E-1,5E-1,1.6165767E0,5E-1,8.286184E-2,5E-1,5E-1,1.4838235E2,3.0307843E2,5.421338E1,2.2457031E2,2.0556834E2,3.6978955E2,2.3309581E2,-4.1561838E2],"split_indices":[16,11,16,10,19,8,0,0,0,0,0,0,0,0,0],"split_type":[0,0,0,0,0,0,0,0,0,0,0,0,0,0,0],"sum_hessian":[1.144E3,6.12E2,5.32E2,4.56E2,1.56E2,4.85E2,4.7E1,4.2E2,3.6E1,1.4E2,1.6E1,4.44E2,4.1E1,3.4E1,1.3E1],"tree_param":{"num_deleted":"0","num_feature":"21","num_nodes":"15","size_leaf_vector":"0"}},{"base_weights":[3.9732825E2,4.2047778E2,4.6496243E1,3.555219E2,6.5469037E2,-5.068809E2,3.3374484E2,-2.812042E2,3.826293E2,7.2860095E2,2.1786206E2,7.110591E2,-7.052845E2,6.654438E2,-3.1026172E2],"categories":[],"categories_nodes":[],"categories_segments":[],"categories_sizes":[],"default_left":[1,1,1,1,1,1,1,0,0,0,0,0,0,0,0],"id":10,"left_children":[1,3,5,7,9,11,13,-1,-1,-1,-1,-1,-1,-1,-1],"loss_changes":[9.27968E6,1.6106528E7,1.1614059E7,1.4657776E7,7.331672E6,6.5425905E6,1.0460044E7,0E0,0E0,0E0,0E0,0E0,0E0,0E0,0E0],"parents":[2147483647,0,0,1,1,2,2,3,3,4,4,5,5,6,6],"right_children":[2,4,6,8,10,12,14,-1,-1,-1,-1,-1,-1,-1,-1],"split_conditions":[1.3643317E0,9.6610165E-1,1.3872104E0,-3.4778976E0,5E-1,-1.22422E0,5E-1,-8.436126E1,1.14788795E2,2.1858029E2,6.535862E1,2.1331773E2,-2.1158536E2,1.9963315E2,-9.307852E1],"split_indices":[17,17,17,18,1,18,10,0,0,0,0,0,0,0,0],"split_type":[0,0,0,0,0,0,0,0,0,0,0,0,0,0,0],"sum_hessian":[1.144E3,1.073E3,7.1E1,8.42E2,2.31E2,2.4E1,4.7E1,3.4E1,8.08E2,1.97E2,3.4E1,3E0,2.1E1,3.1E1,1.6E1],"tree_param":{"num_deleted":"0","num_feature":"21","num_nodes":"15","size_leaf_vector":"0"}},{"base_weights":[2.7849875E2,2.5283794E2,5.8765173E2,2.1906575E2,5.2030035E2,3.0107745E2,7.84036E2,2.2642244E2,-5.687359E2,5.6777594E2,-4.921406E1,-1.2321638E2,3.8717358E2],"categories":[],"categories_nodes":[],"categories_segments":[],"categories_sizes":[],"default_left":[1,1,1,1,1,1,0,0,0,0,0,0,0],"id":11,"left_children":[1,3,5,7,9,11,-1,-1,-1,-1,-1,-1,-1],"loss_changes":[8.934848E6,9.451744E6,4.66019E6,5.588244E6,3.218434E6,1.3993185E6,0E0,0E0,0E0,0E0,0E0,0E0,0E0],"parents":[2147483647,0,0,1,1,2,2,3,3,4,4,5,5],"right_children":[2,4,6,8,10,12,-1,-1,-1,-1,-1,-1,-1],"split_conditions":[5E-1,5E-1,-1.8659672E-1,5E-1,1.3160477E0,-1.1748695E0,2.3521082E2,6.7926735E1,-1.7062077E2,1.703328E2,-1.4764219E1,-3.6964916E1,1.1615208E2],"split_indices":[8,9,16,13,16,20,0,0,0,0,0,0,0],"split_type":[0,0,0,0,0,0,0,0,0,0,0,0,0],"sum_hessian":[1.144E3,1.058E3,8.6E1,9.41E2,1.17E2,3.6E1,5E1,9.33E2,8E0,1.08E2,9E0,6E0,3E1],"tree_param":{"num_deleted":"0","num_feature":"21","num_nodes":"13","size_leaf_vector":"0"}},{"base_weights":[1.9526985E2,1.6744441E2,3.9221518E2,1.4382945E2,4.1496982E2,-1.8413132E3,5.404072E2,1.1103105E2,3.6552844E2,2.128942E2,5.534371E2,2.4720268E2,7.570579E2],"categories":[],"categories_nodes":[],"categories_segments":[],"categories_sizes":[],"default_left":[1,1,1,1,1,0,1,0,0,0,0,0,0],"id":12,"left_children":[1,3,5,7,9,-1,11,-1,-1,-1,-1,-1,-1],"loss_changes":[6.209032E6,5.814848E6,4.766481E7,6.641806E6,2.316511E6,0E0,8.261408E6,0E0,0E0,0E0,0E0,0E0,0E0],"parents":[2147483647,0,0,1,1,2,2,3,3,4,4,6,6],"right_children":[2,4,6,8,10,-1,12,-1,-1,-1,-1,-1,-1],"split_conditions":[5E-1,5E-1,-3.4778976E0,5E-1,-1.8659672E-1,-5.52394E2,-1.8659672E-1,3.330932E1,1.0965854E2,6.386826E1,1.6603113E2,7.4160805E1,2.2711739E2],"split_indices":[7,8,18,9,16,0,16,0,0,0,0,0,0],"split_type":[0,0,0,0,0,0,0,0,0,0,0,0,0],"sum_hessian":[1.144E3,1.004E3,1.4E2,9.18E2,8.6E1,8E0,1.32E2,8.01E2,1.17E2,3.6E1,5E1,5.7E1,7.5E1],"tree_param":{"num_deleted":"0","num_feature":"21","num_nodes":"13","size_leaf_vector":"0"}},{"base_weights":[1.3679507E2,1.4715749E2,-2.9773587E2,-7.035826E1,1.6975069E2,-5.0481323E2,2.5717456E2,-2.53503E1,-2.8898883E2,1.8806802E2,-7.995833E1,-6.4594666E2,-1.5043025E2],"categories":[],"categories_nodes":[],"categories_segments":[],"categories_sizes":[],"default_left":[1,1,1,1,1,1,0,0,0,0,0,0,0],"id":13,"left_children":[1,3,5,7,9,11,-1,-1,-1,-1,-1,-1,-1],"loss_changes":[5.199508E6,5.51113E6,3.2323788E6,1.0357263E6,4.653078E6,9.03136E5,0E0,0E0,0E0,0E0,0E0,0E0,0E0],"parents":[2147483647,0,0,1,1,2,2,3,3,4,4,5,5],"right_children":[2,4,6,8,10,12,-1,-1,-1,-1,-1,-1,-1],"split_conditions":[5E-1,-1.3887124E0,7.1498996E-1,5E-1,1.3643317E0,9.857192E-1,7.7152374E1,-7.60509E0,-8.6696655E1,5.642041E1,-2.39875E1,-1.9378401E2,-4.5129078E1],"split_indices":[6,16,16,0,17,19,0,0,0,0,0,0,0],"split_type":[0,0,0,0,0,0,0,0,0,0,0,0,0],"sum_hessian":[1.144E3,1.118E3,2.6E1,1.05E2,1.013E3,1.9E1,7E0,8.8E1,1.7E1,9.44E2,6.9E1,1.3E1,6E0],"tree_param":{"num_deleted":"0","num_feature":"21","num_nodes":"13","size_leaf_vector":"0"}},{"base_weights":[9.5561325E1,1.1816902E2,-9.3245445E1,7.691523E1,2.221763E2,-1.4573628E2,1.0819103E2,1.0881523E2,-6.262915E2,1.9618454E2,1.01189844E3,-2.1704614E2,4.0290005E1,5.0590308E2,-6.496094E1],"categories":[],"categories_nodes":[],"categories_segments":[],"categories_sizes":[],"default_left":[1,1,1,1,1,1,1,0,0,0,0,0,0,0,0],"id":14,"left_children":[1,3,5,7,9,11,13,-1,-1,-1,-1,-1,-1,-1,-1],"loss_changes":[4.898435E6,4.372291E6,1.3163166E6,1.6533454E7,5.754099E6,1.3087649E6,1.8233442E6,0E0,0E0,0E0,0E0,0E0,0E0,0E0,0E0],"parents":[2147483647,0,0,1,1,2,2,3,3,4,4,5,5,6,6],"right_children":[2,4,6,8,10,12,14,-1,-1,-1,-1,-1,-1,-1,-1],"split_conditions":[5E-1,8.8888645E-1,7.1498996E-1,8.6153936E-1,1.6165767E0,9.857192E-1,-8.199955E-1,3.264457E1,-1.8788745E2,5.8855366E1,3.0356955E2,-6.5113846E1,1.2087002E1,1.5177094E2,-1.9488281E1],"split_indices":[5,17,16,17,16,19,19,0,0,0,0,0,0,0,0],"split_type":[0,0,0,0,0,0,0,0,0,0,0,0,0,0,0],"sum_hessian":[1.144E3,1.022E3,1.22E2,7.33E2,2.89E2,9.7E1,2.5E1,7.02E2,3.1E1,2.81E2,8E0,7E1,2.7E1,7E0,1.8E1],"tree_param":{"num_deleted":"0","num_feature":"21","num_nodes":"15","size_leaf_vector":"0"}},{"base_weights":[6.714313E1,3.0099133E1,1.7778302E2,-1.8914738E1,1.13543846E2,2.0442609E2,-2.5739673E2,-4.6678192E1,3.0435602E2,2.0496936E2,-9.077089E1,5.0072456E1,2.6996594E2,-9.0062146E2,5.7880884E2],"categories":[],"categories_nodes":[],"categories_segments":[],"categories_sizes":[],"default_left":[1,1,1,1,1,1,1,0,0,0,0,0,0,0,0],"id":15,"left_children":[1,3,5,7,9,11,13,-1,-1,-1,-1,-1,-1,-1,-1],"loss_changes":[4.6874815E6,3.5154128E6,3.380247E6,4.878718E6,5.958712E6,2.728003E6,9.665046E6,0E0,0E0,0E0,0E0,0E0,0E0,0E0,0E0],"parents":[2147483647,0,0,1,1,2,2,3,3,4,4,5,5,6,6],"right_children":[2,4,6,8,10,12,14,-1,-1,-1,-1,-1,-1,-1,-1],"split_conditions":[5E-1,4.1446108E-1,1.3643317E0,5E-1,5E-1,-7.876545E-1,1.4865892E0,-1.4003458E1,9.130681E1,6.149081E1,-2.7231268E1,1.5021737E1,8.0989784E1,-2.7018646E2,1.7364265E2],"split_indices":[15,16,17,10,14,16,17,0,0,0,0,0,0,0,0],"split_type":[0,0,0,0,0,0,0,0,0,0,0,0,0,0,0],"sum_hessian":[1.144E3,8.58E2,2.86E2,5.41E2,3.17E2,2.7E2,1.6E1,4.99E2,4.2E1,2.19E2,9.8E1,8.1E1,1.89E2,9E0,7E0],"tree_param":{"num_deleted":"0","num_feature":"21","num_nodes":"15","size_leaf_vector":"0"}},{"base_weights":[4.7097244E1,5.8439754E1,-2.1334387E2,6.64752E1,-2.6276166E2,1.5860513E2,-1.1279775E3,8.0014656E1,-1.284755E2,-3.9441406E2,2.6375748E2,-2.1117188E2,6.657193E2,-1.2472919E3,-5.1786865E2],"categories":[],"categories_nodes":[],"categories_segments":[],"categories_sizes":[],"default_left":[1,1,1,1,1,1,1,0,0,0,0,0,0,0,0],"id":16,"left_children":[1,3,5,7,9,11,13,-1,-1,-1,-1,-1,-1,-1,-1],"loss_changes":[3.394862E6,2.8514012E6,1.6508363E7,2.839852E6,1.9756024E6,6.7037515E6,3.73194E5,0E0,0E0,0E0,0E0,0E0,0E0,0E0,0E0],"parents":[2147483647,0,0,1,1,2,2,3,3,4,4,5,5,6,6],"right_children":[2,4,6,8,10,12,14,-1,-1,-1,-1,-1,-1,-1,-1],"split_conditions":[1.6165767E0,5E-1,5E-1,1.3643317E0,1.0155189E0,5.6678325E-2,5E-1,2.4004398E1,-3.854265E1,-1.1832423E2,7.912724E1,-6.3351566E1,1.997158E2,-3.7418756E2,-1.553606E2],"split_indices":[16,6,0,17,16,17,12,0,0,0,0,0,0,0,0],"split_type":[0,0,0,0,0,0,0,0,0,0,0,0,0,0,0],"sum_hessian":[1.144E3,1.097E3,4.7E1,1.071E3,2.6E1,3.4E1,1.3E1,1.002E3,6.9E1,2.1E1,5E0,2E1,1.4E1,1E1,3E0],"tree_param":{"num_deleted":"0","num_feature":"21","num_nodes":"15","size_leaf_vector":"0"}},{"base_weights":[3.257734E1,3.6811054E1,-5.0590158E2,6.3238678E1,-3.9882713E1,-6.096336E2,-2.2382812E2,-6.2713947E2,7.2246956E1,-1.4397075E2,3.6499057E2],"categories":[],"categories_nodes":[],"categories_segments":[],"categories_sizes":[],"default_left":[1,1,1,1,1,0,0,0,0,0,0],"id":17,"left_children":[1,3,5,7,9,-1,-1,-1,-1,-1,-1],"loss_changes":[2.628955E6,2.3070325E6,1.2688725E5,5.306684E6,1.2358148E7,0E0,0E0,0E0,0E0,0E0,0E0],"parents":[2147483647,0,0,1,1,2,2,3,3,4,4],"right_children":[2,4,6,8,10,-1,-1,-1,-1,-1,-1],"split_conditions":[5E-1,5E-1,-4.829343E-1,-3.4778976E0,1.0155189E0,-1.8289009E2,-6.714844E1,-1.8814185E2,2.1674088E1,-4.3191227E1,1.0949718E2],"split_indices":[13,11,17,18,16,0,0,0,0,0,0],"split_type":[0,0,0,0,0,0,0,0,0,0,0],"sum_hessian":[1.144E3,1.136E3,8E0,8.45E2,2.91E2,5E0,3E0,1E1,8.35E2,2.32E2,5.9E1],"tree_param":{"num_deleted":"0","num_feature":"21","num_nodes":"11","size_leaf_vector":"0"}},{"base_weights":[2.2498512E1,3.8114346E1,-1.0756242E2,5.529556E1,-1.142398E2,-1.3911777E2,-9.426632E0,2.3725708E1,1.5213516E2,7.157561E2,-1.8151535E2,-5.9562073E1,-2.1910811E2,-1.7707254E2,3.1148163E2],"categories":[],"categories_nodes":[],"categories_segments":[],"categories_sizes":[],"default_left":[1,1,1,1,1,1,1,0,0,0,0,0,0,0,0],"id":18,"left_children":[1,3,5,7,9,11,13,-1,-1,-1,-1,-1,-1,-1,-1],"loss_changes":[2.3296058E6,2.6841515E6,3.7958388E5,2.809025E6,5.937117E6,5.7877225E5,1.7229225E6,0E0,0E0,0E0,0E0,0E0,0E0,0E0,0E0],"parents":[2147483647,0,0,1,1,2,2,3,3,4,4,5,5,6,6],"right_children":[2,4,6,8,10,12,14,-1,-1,-1,-1,-1,-1,-1,-1],"split_conditions":[5E-1,5E-1,5E-1,5E-1,-1.2994134E0,-6.0395624E-2,5.827068E-1,7.1177125E0,4.564055E1,2.1472684E2,-5.445461E1,-1.7868622E1,-6.573244E1,-5.3121765E1,9.344449E1],"split_indices":[5,1,12,15,17,17,17,0,0,0,0,0,0,0,0],"split_type":[0,0,0,0,0,0,0,0,0,0,0,0,0,0,0],"sum_hessian":[1.144E3,1.022E3,1.22E2,9.19E2,1.03E2,9.2E1,3E1,6.94E2,2.25E2,7E0,9.6E1,4.7E1,4.5E1,2E1,1E1],"tree_param":{"num_deleted":"0","num_feature":"21","num_nodes":"15","size_leaf_vector":"0"}},{"base_weights":[1.5896955E1,2.5820864E1,-2.1144366E2,-1.0424969E2,3.9824623E1,-3.5983978E2,4.7158832E2,-1.2440091E2,1.8135437E1,5.251013E1,-1.22997314E2,-7.148824E1,-8.9024347E2],"categories":[],"categories_nodes":[],"categories_segments":[],"categories_sizes":[],"default_left":[1,1,1,1,1,1,0,0,0,0,0,0,0],"id":19,"left_children":[1,3,5,7,9,11,-1,-1,-1,-1,-1,-1,-1],"loss_changes":[2.588703E6,2.004133E6,5.034942E6,2.661405E5,2.055414E6,6.0540655E6,0E0,0E0,0E0,0E0,0E0,0E0,0E0],"parents":[2147483647,0,0,1,1,2,2,3,3,4,4,5,5],"right_children":[2,4,6,8,10,12,-1,-1,-1,-1,-1,-1,-1],"split_conditions":[1.6165767E0,-1.3887124E0,5E-1,-1.0515026E0,1.3643317E0,6.3597095E-1,1.414765E2,-3.7320274E1,5.4406314E0,1.575304E1,-3.6899197E1,-2.1446474E1,-2.6707306E2],"split_indices":[16,16,4,17,17,17,0,0,0,0,0,0,0],"split_type":[0,0,0,0,0,0,0,0,0,0,0,0,0],"sum_hessian":[1.144E3,1.097E3,4.7E1,1.06E2,9.91E2,3.9E1,8E0,9.1E1,1.5E1,9.2E2,7.1E1,2.6E1,1.3E1],"tree_param":{"num_deleted":"0","num_feature":"21","num_nodes":"13","size_leaf_vector":"0"}},{"base_weights":[1.0953241E1,-1.4285135E2,2.2175905E1,-9.3460455E0,-4.822582E2,1.147172E1,1.6791826E2,-1.3407027E2,6.707465E2,-1.1433687E3,-2.2055699E2,-5.1931086E0,1.1256123E2,1.0573171E2,3.828496E2],"categories":[],"categories_nodes":[],"categories_segments":[],"categories_sizes":[],"default_left":[1,1,1,1,1,1,1,0,0,0,0,0,0,0,0],"id":20,"left_children":[1,3,5,7,9,11,13,-1,-1,-1,-1,-1,-1,-1,-1],"loss_changes":[1.9795491E6,3.529877E6,1.6642104E6,4.924896E6,3.5541175E6,1.6784852E6,9.352269E5,0E0,0E0,0E0,0E0,0E0,0E0,0E0,0E0],"parents":[2147483647,0,0,1,1,2,2,3,3,4,4,5,5,6,6],"right_children":[2,4,6,8,10,12,14,-1,-1,-1,-1,-1,-1,-1,-1],"split_conditions":[-4.5516133E-1,7.1498996E-1,5E-1,5E-1,1.0155189E0,5E-1,5E-1,-4.022108E1,2.0122397E2,-3.4301062E2,-6.61671E1,-1.5579326E0,3.376837E1,3.1719515E1,1.1485489E2],"split_indices":[20,16,8,10,16,7,15,0,0,0,0,0,0,0,0],"split_type":[0,0,0,0,0,0,0,0,0,0,0,0,0,0,0],"sum_hessian":[1.144E3,7.7E1,1.067E3,5.6E1,2.1E1,9.95E2,7.2E1,4.8E1,8E0,5E0,1.6E1,8.55E2,1.4E2,5.7E1,1.5E1],"tree_param":{"num_deleted":"0","num_feature":"21","num_nodes":"15","size_leaf_vector":"0"}},{"base_weights":[7.606388E0,-1.993899E1,8.421744E1,-2.3642566E0,-2.6224384E2,4.0391226E2,4.8906986E1,-2.2815393E1,1.6906389E2,6.610089E1,-4.1548245E2,1.8667578E2,5.0319672E2,1.167129E2,-1.8004158E2],"categories":[],"categories_nodes":[],"categories_segments":[],"categories_sizes":[],"default_left":[1,1,1,1,1,1,1,0,0,0,0,0,0,0,0],"id":21,"left_children":[1,3,5,7,9,11,13,-1,-1,-1,-1,-1,-1,-1,-1],"loss_changes":[2.41795E6,3.589247E6,3.4006818E6,2.7630012E6,2.895424E6,5.53112E5,4.274607E6,0E0,0E0,0E0,0E0,0E0,0E0,0E0,0E0],"parents":[2147483647,0,0,1,1,2,2,3,3,4,4,5,5,6,6],"right_children":[2,4,6,8,10,12,14,-1,-1,-1,-1,-1,-1,-1,-1],"split_conditions":[9.6610165E-1,8.551048E-1,-4.729941E-1,3.9824829E-1,1.0155189E0,7.1498996E-1,1.3643317E0,-6.8446183E0,5.071917E1,1.9830269E1,-1.2464474E2,5.6002735E1,1.5095901E2,3.501387E1,-5.4012478E1],"split_indices":[17,17,18,17,16,16,17,0,0,0,0,0,0,0,0],"split_type":[0,0,0,0,0,0,0,0,0,0,0,0,0,0,0],"sum_hessian":[1.144E3,8.42E2,3.02E2,7.86E2,5.6E1,2.9E1,2.73E2,7.03E2,8.3E1,1.8E1,3.8E1,1E1,1.9E1,2.11E2,6.2E1],"tree_param":{"num_deleted":"0","num_feature":"21","num_nodes":"15","size_leaf_vector":"0"}},{"base_weights":[5.4355493E0,-1.0658367E1,9.654043E1,-2.0427597E0,-6.473935E2,2.1285718E2,-3.3720108E1,-1.8619003E1,1.6488634E2,-2.697987E2,-1.1975853E3,3.2435587E2,-1.3089355E2,1.0312274E2,-3.498467E2],"categories":[],"categories_nodes":[],"categories_segments":[],"categories_sizes":[],"default_left":[1,1,1,1,1,1,1,0,0,0,0,0,0,0,0],"id":22,"left_children":[1,3,5,7,9,11,13,-1,-1,-1,-1,-1,-1,-1,-1],"loss_changes":[1.6798674E6,5.3419055E6,2.6132325E6,2.6649792E6,2.3776375E6,3.5302818E6,3.58337E6,0E0,0E0,0E0,0E0,0E0,0E0,0E0,0E0],"parents":[2147483647,0,0,1,1,2,2,3,3,4,4,5,5,6,6],"right_children":[2,4,6,8,10,12,14,-1,-1,-1,-1,-1,-1,-1,-1],"split_conditions":[1.162893E0,1.1498451E0,1.3257241E0,5E-1,5E-1,5E-1,1.3160477E0,-5.585701E0,4.9465904E1,-8.093961E1,-3.592756E2,9.730676E1,-3.9268066E1,3.0936823E1,-1.0495402E2],"split_indices":[17,17,17,9,15,9,16,0,0,0,0,0,0,0,0],"split_type":[0,0,0,0,0,0,0,0,0,0,0,0,0,0,0],"sum_hessian":[1.144E3,9.73E2,1.71E2,9.61E2,1.2E1,9E1,8.1E1,8.75E2,8.6E1,8E0,4E0,6.8E1,2.2E1,5.7E1,2.4E1],"tree_param":{"num_deleted":"0","num_feature":"21","num_nodes":"15","size_leaf_vector":"0"}},{"base_weights":[3.4449995E0,6.430166E0,-3.740638E2,4.3539318E1,-2.1943853E1,-4.4517416E2,-1.7388232E2,-1.0847782E1,1.7287611E2,-1.3837857E2,3.1844896E1],"categories":[],"categories_nodes":[],"categories_segments":[],"categories_sizes":[],"default_left":[1,1,1,1,1,0,0,0,0,0,0],"id":23,"left_children":[1,3,5,7,9,-1,-1,-1,-1,-1,-1],"loss_changes":[1.2927362E6,1.1981434E6,5.0706875E4,3.469762E6,4.0439635E6,0E0,0E0,0E0,0E0,0E0,0E0],"parents":[2147483647,0,0,1,1,2,2,3,3,4,4],"right_children":[2,4,6,8,10,-1,-1,-1,-1,-1,-1],"split_conditions":[5E-1,-3.604982E-1,-4.829343E-1,-6.5899205E-1,3.9824829E-1,-1.3355226E2,-5.21647E1,-3.2543347E0,5.1862835E1,-4.1513573E1,9.55347E0],"split_indices":[13,17,17,17,17,0,0,0,0,0,0],"split_type":[0,0,0,0,0,0,0,0,0,0,0],"sum_hessian":[1.144E3,1.136E3,8E0,4.92E2,6.44E2,5E0,3E0,3.47E2,1.45E2,2.03E2,4.41E2],"tree_param":{"num_deleted":"0","num_feature":"21","num_nodes":"11","size_leaf_vector":"0"}},{"base_weights":[2.2635822E0,-7.1888113E0,1.1729601E2,-1.9426409E0,-2.0763715E2,7.2811005E1,2.4541939E2,-1.3897566E2,4.8762026E0,-2.856777E2,1.9287675E2,2.6256083E1,1.8659128E2,2.966892E2,9.317132E1],"categories":[],"categories_nodes":[],"categories_segments":[],"categories_sizes":[],"default_left":[1,1,1,1,1,1,1,0,0,0,0,0,0,0,0],"id":24,"left_children":[1,3,5,7,9,11,13,-1,-1,-1,-1,-1,-1,-1,-1],"loss_changes":[1.2458382E6,1.1132264E6,4.7799325E5,9.659199E5,8.9902125E5,3.447049E5,1.4408312E5,0E0,0E0,0E0,0E0,0E0,0E0,0E0,0E0],"parents":[2147483647,0,0,1,1,2,2,3,3,4,4,5,5,6,6],"right_children":[2,4,6,8,10,12,14,-1,-1,-1,-1,-1,-1,-1,-1],"split_conditions":[5E-1,5E-1,5E-1,-3.4778976E0,1.1537774E0,-5.982208E-1,-3.5960448E-1,-4.16927E1,1.4628608E0,-8.5703316E1,5.786303E1,7.876825E0,5.5977386E1,8.900677E1,2.7951397E1],"split_indices":[8,6,15,18,17,17,17,0,0,0,0,0,0,0,0],"split_type":[0,0,0,0,0,0,0,0,0,0,0,0,0,0,0],"sum_hessian":[1.144E3,1.058E3,8.6E1,1.032E3,2.6E1,6.5E1,2.1E1,4.8E1,9.84E2,2.2E1,4E0,4.7E1,1.8E1,1.5E1,6E0],"tree_param":{"num_deleted":"0","num_feature":"21","num_nodes":"15","size_leaf_vector":"0"}},{"base_weights":[1.6829216E0,-1.2458865E1,5.9243813E1,-2.7722645E0,-5.5957855E2,2.5446779E2,-3.368212E1,4.092851E1,-1.327124E2,3.4570078E2,-1.7728949E3,4.426223E2,-1.4812366E2,1.2575831E0,-8.957378E2],"categories":[],"categories_nodes":[],"categories_segments":[],"categories_sizes":[],"default_left":[1,1,1,1,1,1,1,0,0,0,0,0,0,0,0],"id":25,"left_children":[1,3,5,7,9,11,13,-1,-1,-1,-1,-1,-1,-1,-1],"loss_changes":[9.32784E5,4.8742005E6,4.1085205E6,5.14446E6,1.8187136E7,5.59527E6,4.639602E6,0E0,0E0,0E0,0E0,0E0,0E0,0E0,0E0],"parents":[2147483647,0,0,1,1,2,2,3,3,4,4,5,5,6,6],"right_children":[2,4,6,8,10,12,14,-1,-1,-1,-1,-1,-1,-1,-1],"split_conditions":[1.0155189E0,1.3707664E0,1.3160477E0,5E-1,8.286181E-2,5E-1,5E-1,1.2278553E1,-3.981372E1,1.03710236E2,-5.3186847E2,1.327867E2,-4.44371E1,3.7727496E-1,-2.6872134E2],"split_indices":[16,17,16,11,19,12,10,0,0,0,0,0,0,0,0],"split_type":[0,0,0,0,0,0,0,0,0,0,0,0,0,0,0],"sum_hessian":[1.144E3,9.19E2,2.25E2,9.04E2,1.5E1,7.2E1,1.53E2,6.77E2,2.27E2,9E0,6E0,4.9E1,2.3E1,1.48E2,5E0],"tree_param":{"num_deleted":"0","num_feature":"21","num_nodes":"15","size_leaf_vector":"0"}},{"base_weights":[6.229821E-1,1.0535743E1,-8.182723E1,2.07135E1,-7.959957E1,-1.1614317E2,5.0664665E1,2.5973833E1,-1.5422913E2,-1.7891728E2,1.71348E2,-6.0344173E1,-2.065052E2,1.5488445E2,-1.634043E2],"categories":[],"categories_nodes":[],"categories_segments":[],"categories_sizes":[],"default_left":[1,1,1,1,1,1,1,0,0,0,0,0,0,0,0],"id":26,"left_children":[1,3,5,7,9,11,13,-1,-1,-1,-1,-1,-1,-1,-1],"loss_changes":[9.3668125E5,9.401239E5,5.651142E5,8.506419E5,2.6227052E6,4.816655E5,6.0537444E5,0E0,0E0,0E0,0E0,0E0,0E0,0E0,0E0],"parents":[2147483647,0,0,1,1,2,2,3,3,4,4,5,5,6,6],"right_children":[2,4,6,8,10,12,14,-1,-1,-1,-1,-1,-1,-1,-1],"split_conditions":[5E-1,5E-1,7.1498996E-1,5E-1,7.1498996E-1,-1.8659672E-1,5E-1,7.79215E0,-4.6268738E1,-5.3675186E1,5.1404404E1,-1.8103252E1,-6.1951565E1,4.6465336E1,-4.902129E1],"split_indices":[5,1,16,6,16,16,14,0,0,0,0,0,0,0,0],"split_type":[0,0,0,0,0,0,0,0,0,0,0,0,0,0,0],"sum_hessian":[1.144E3,1.022E3,1.22E2,9.19E2,1.03E2,9.7E1,2.5E1,8.93E2,2.6E1,7.4E1,2.9E1,6.1E1,3.6E1,1.7E1,8E0],"tree_param":{"num_deleted":"0","num_feature":"21","num_nodes":"15","size_leaf_vector":"0"}},{"base_weights":[3.2844397E-1,1.4231023E2,-4.6739206E0,2.7102148E1,4.7370343E2,-2.285023E0,-2.9586557E2,-1.6936035E0,1.219587E2,2.4443092E1,-2.3281977E1],"categories":[],"categories_nodes":[],"categories_segments":[],"categories_sizes":[],"default_left":[1,1,1,1,0,1,0,0,0,0,0],"id":27,"left_children":[1,3,5,7,-1,9,-1,-1,-1,-1,-1],"loss_changes":[8.1389525E5,1.4761492E6,7.693831E5,8.215053E4,0E0,6.1733775E5,0E0,0E0,0E0,0E0,0E0],"parents":[2147483647,0,0,1,1,2,2,3,3,5,5],"right_children":[2,4,6,8,-1,10,-1,-1,-1,-1,-1],"split_conditions":[-1.4219004E0,1.0155189E0,5E-1,5.647255E-1,1.4211104E2,-1.8659672E-1,-8.8759674E1,-5.080811E-1,3.6587612E1,7.332928E0,-6.9845934E0],"split_indices":[19,16,13,16,0,16,0,0,0,0,0],"split_type":[0,0,0,0,0,0,0,0,0,0,0],"sum_hessian":[1.144E3,3.8E1,1.106E3,2.9E1,9E0,1.098E3,8E0,2.3E1,6E0,4.83E2,6.15E2],"tree_param":{"num_deleted":"0","num_feature":"21","num_nodes":"11","size_leaf_vector":"0"}},{"base_weights":[3.0816135E-1,-1.5637783E1,4.4671604E1,-9.575312E0,-4.7331064E2,1.3819955E1,3.1492413E2,-1.4600499E1,4.5213086E2,-2.4017168E2,-5.7222266E2,5.091482E1,-1.8577852E2,4.699528E2,-1.1625174E2],"categories":[],"categories_nodes":[],"categories_segments":[],"categories_sizes":[],"default_left":[1,1,1,1,1,1,1,0,0,0,0,0,0,0,0],"id":28,"left_children":[1,3,5,7,9,11,13,-1,-1,-1,-1,-1,-1,-1,-1],"loss_changes":[8.10691E5,2.33448E6,2.521982E6,1.9392949E6,1.1623125E5,2.0307725E6,2.1268158E6,0E0,0E0,0E0,0E0,0E0,0E0,0E0,0E0],"parents":[2147483647,0,0,1,1,2,2,3,3,4,4,5,5,6,6],"right_children":[2,4,6,8,10,12,14,-1,-1,-1,-1,-1,-1,-1,-1],"split_conditions":[9.6610165E-1,9.1784215E-1,5E-1,8.8888645E-1,5E-1,1.3695152E0,5E-1,-4.38015E0,1.3563927E2,-7.2051506E1,-1.7166681E2,1.5274447E1,-5.573356E1,1.4098584E2,-3.4875523E1],"split_indices":[17,17,2,17,3,17,11,0,0,0,0,0,0,0,0],"split_type":[0,0,0,0,0,0,0,0,0,0,0,0,0,0,0],"sum_hessian":[1.144E3,8.42E2,3.02E2,8.32E2,1E1,2.72E2,3E1,8.24E2,8E0,4E0,6E0,2.3E2,4.2E1,2.2E1,8E0],"tree_param":{"num_deleted":"0","num_feature":"21","num_nodes":"15","size_leaf_vector":"0"}},{"base_weights":[1.7463753E-1,-8.5093376E1,6.401913E0,-2.443711E2,-3.6698418E1,-2.444436E-1,9.699601E1,-1.1868037E2,-4.759725E2,-8.7744644E1,2.3241182E2,-3.5388699E0,2.491371E2,1.17349236E2,-1.4983984E2],"categories":[],"categories_nodes":[],"categories_segments":[],"categories_sizes":[],"default_left":[1,1,1,1,1,1,1,0,0,0,0,0,0,0,0],"id":29,"left_children":[1,3,5,7,9,11,13,-1,-1,-1,-1,-1,-1,-1,-1],"loss_changes":[6.085253E5,5.9227456E5,6.430886E5,4.6749412E5,8.5835375E5,8.191645E5,3.843287E5,0E0,0E0,0E0,0E0,0E0,0E0,0E0,0E0],"parents":[2147483647,0,0,1,1,2,2,3,3,4,4,5,5,6,6],"right_children":[2,4,6,8,10,12,14,-1,-1,-1,-1,-1,-1,-1,-1],"split_conditions":[-4.5516133E-1,3.8381428E-1,5E-1,5E-1,5E-1,1.5876241E0,1.5876241E0,-3.560411E1,-1.4279176E2,-2.6323395E1,6.972355E1,-1.061661E0,7.4741135E1,3.5204773E1,-4.4951954E1],"split_indices":[20,19,8,8,8,19,19,0,0,0,0,0,0,0,0],"split_type":[0,0,0,0,0,0,0,0,0,0,0,0,0,0,0],"sum_hessian":[1.144E3,7.7E1,1.067E3,1.7E1,6E1,9.95E2,7.2E1,1.2E1,5E0,5.1E1,9E0,9.83E2,1.2E1,6.7E1,5E0],"tree_param":{"num_deleted":"0","num_feature":"21","num_nodes":"15","size_leaf_vector":"0"}},{"base_weights":[6.0043667E-2,-5.300912E0,1.2269065E2,-1.575365E-1,-4.7076328E2,3.363857E2,-3.2572357E2,-9.278218E0,1.36655E2,7.321261E1,-1.0269413E3,-5.446766E2,4.7669348E2,-1.3738353E2,-6.167264E2],"categories":[],"categories_nodes":[],"categories_segments":[],"categories_sizes":[],"default_left":[1,1,1,1,1,1,1,0,0,0,0,0,0,0,0],"id":30,"left_children":[1,3,5,7,9,11,13,-1,-1,-1,-1,-1,-1,-1,-1],"loss_changes":[7.533931E5,2.6285902E6,4.709116E6,1.3576521E6,3.7057538E6,4.3390995E6,7.9219175E5,0E0,0E0,0E0,0E0,0E0,0E0,0E0,0E0],"parents":[2147483647,0,0,1,1,2,2,3,3,4,4,5,5,6,6],"right_children":[2,4,6,8,10,12,14,-1,-1,-1,-1,-1,-1,-1,-1],"split_conditions":[1.3872104E0,1.3759499E0,1.3160477E0,5E-1,8.286181E-2,-1.1748695E0,5E-1,-2.7834656E0,4.0996502E1,2.1963783E1,-3.080824E2,-1.6340298E2,1.4300806E2,-4.121506E1,-1.8501791E2],"split_indices":[17,17,16,10,19,20,10,0,0,0,0,0,0,0,0],"split_type":[0,0,0,0,0,0,0,0,0,0,0,0,0,0,0],"sum_hessian":[1.144E3,1.097E3,4.7E1,1.086E3,1.1E1,3.2E1,1.5E1,1.019E3,6.7E1,6E0,5E0,4E0,2.8E1,1E1,5E0],"tree_param":{"num_deleted":"0","num_feature":"21","num_nodes":"15","size_leaf_vector":"0"}},{"base_weights":[-3.9008427E-1,1.6257188E2,-3.7273374E0,3.699961E2,2.799456E0,-8.866418E1,7.5784993E0,1.7786662E2,6.1372363E2,2.866726E2,-1.0068164E2,2.4385164E0,-3.4121844E2,5.159705E1,-2.0903778E1],"categories":[],"categories_nodes":[],"categories_segments":[],"categories_sizes":[],"default_left":[1,1,1,1,1,1,1,0,0,0,0,0,0,0,0],"id":31,"left_children":[1,3,5,7,9,11,13,-1,-1,-1,-1,-1,-1,-1,-1],"loss_changes":[6.233088E5,7.611997E5,1.0790686E6,3.5911138E5,4.4011975E5,3.0379375E6,1.2447972E6,0E0,0E0,0E0,0E0,0E0,0E0,0E0,0E0],"parents":[2147483647,0,0,1,1,2,2,3,3,4,4,5,5,6,6],"right_children":[2,4,6,8,10,12,14,-1,-1,-1,-1,-1,-1,-1,-1],"split_conditions":[-1.9695053E0,-2.1809064E-1,-1.0527537E0,-4.8712564E-1,-1.1748695E0,5E-1,-1.8659672E-1,5.335999E1,1.841171E2,8.6001785E1,-3.0204493E1,7.315549E-1,-1.0236554E2,1.54791155E1,-6.271134E0],"split_indices":[17,19,17,16,20,14,16,0,0,0,0,0,0,0,0],"split_type":[0,0,0,0,0,0,0,0,0,0,0,0,0,0,0],"sum_hessian":[1.144E3,2.2E1,1.122E3,9E0,1.3E1,1.31E2,9.91E2,6E0,3E0,3E0,1E1,9.7E1,3.4E1,3.89E2,6.02E2],"tree_param":{"num_deleted":"0","num_feature":"21","num_nodes":"15","size_leaf_vector":"0"}},{"base_weights":[-9.759484E-2,-1.7999266E1,2.8415695E1,4.800659E0,-2.4221393E2,1.9041277E2,4.8388156E-1,-3.6969514E0,5.4051984E2,-5.8839343E2,5.299715E1,1.385399E1,3.83611E2,-2.6391437E2,3.167989E1],"categories":[],"categories_nodes":[],"categories_segments":[],"categories_sizes":[],"default_left":[1,1,1,1,1,1,1,0,0,0,0,0,0,0,0],"id":32,"left_children":[1,3,5,7,9,11,13,-1,-1,-1,-1,-1,-1,-1,-1],"loss_changes":[5.8496025E5,3.6000655E6,1.9999012E6,2.9154912E6,6.673925E6,2.2118895E6,3.126169E6,0E0,0E0,0E0,0E0,0E0,0E0,0E0,0E0],"parents":[2147483647,0,0,1,1,2,2,3,3,4,4,5,5,6,6],"right_children":[2,4,6,8,10,12,14,-1,-1,-1,-1,-1,-1,-1,-1],"split_conditions":[3.9824829E-1,-3.572966E-2,8.343711E-1,-7.380104E-2,5.647255E-1,3.8381428E-1,8.7279993E-1,-1.1090854E0,1.6215596E2,-1.7651804E2,1.5899146E1,4.156197E0,1.15083305E2,-7.917432E1,9.503967E0],"split_indices":[17,17,17,17,16,19,17,0,0,0,0,0,0,0,0],"split_type":[0,0,0,0,0,0,0,0,0,0,0,0,0,0,0],"sum_hessian":[1.144E3,7.03E2,4.41E2,6.39E2,6.4E1,6.4E1,3.77E2,6.3E2,9E0,2.9E1,3.5E1,3.4E1,3E1,3.9E1,3.38E2],"tree_param":{"num_deleted":"0","num_feature":"21","num_nodes":"15","size_leaf_vector":"0"}},{"base_weights":[-2.4495088E-2,1.2761222E2,-2.6385822E0,2.8374316E2,6.974958E0,-6.1733902E1,5.2275677E0,6.964726E1,4.1486588E2,2.2300317E2,-7.221484E1,2.8125896E0,-2.4070026E2,4.594133E1,-1.4588599E1],"categories":[],"categories_nodes":[],"categories_segments":[],"categories_sizes":[],"default_left":[1,1,1,1,1,1,1,0,0,0,0,0,0,0,0],"id":33,"left_children":[1,3,5,7,9,11,13,-1,-1,-1,-1,-1,-1,-1,-1],"loss_changes":[3.8237E5,4.3123078E5,5.2235222E5,2.5183412E5,2.5560538E5,1.5254949E6,8.0100656E5,0E0,0E0,0E0,0E0,0E0,0E0,0E0,0E0],"parents":[2147483647,0,0,1,1,2,2,3,3,4,4,5,5,6,6],"right_children":[2,4,6,8,10,12,14,-1,-1,-1,-1,-1,-1,-1,-1],"split_conditions":[-1.9695053E0,-2.1809064E-1,-1.0527537E0,-1.0881834E0,-1.1748695E0,5E-1,-4.144773E-1,2.089418E1,1.2445977E2,6.6900955E1,-2.1664454E1,8.4377694E-1,-7.221008E1,1.3782399E1,-4.3765798E0],"split_indices":[17,19,17,16,20,14,17,0,0,0,0,0,0,0,0],"split_type":[0,0,0,0,0,0,0,0,0,0,0,0,0,0,0],"sum_hessian":[1.144E3,2.2E1,1.122E3,9E0,1.3E1,1.31E2,9.91E2,4E0,5E0,3E0,1E1,9.7E1,3.4E1,3.24E2,6.67E2],"tree_param":{"num_deleted":"0","num_feature":"21","num_nodes":"15","size_leaf_vector":"0"}},{"base_weights":[9.5452376E-2,1.8670878E0,-2.2373177E2,-5.320474E0,5.2676537E1,-2.79777E2,-8.373096E1,1.9865738E2,-2.2608465E1,-1.2033529E3,1.6821251E2],"categories":[],"categories_nodes":[],"categories_segments":[],"categories_sizes":[],"default_left":[1,1,1,1,1,0,0,0,0,0,0],"id":34,"left_children":[1,3,5,7,9,-1,-1,-1,-1,-1,-1],"loss_changes":[4.5445628E5,4.1550822E5,4.719147E4,3.5202795E6,2.0663856E7,0E0,0E0,0E0,0E0,0E0,0E0],"parents":[2147483647,0,0,1,1,2,2,3,3,4,4],"right_children":[2,4,6,8,10,-1,-1,-1,-1,-1,-1],"split_conditions":[5E-1,5E-1,-4.829343E-1,-4.729941E-1,-1.975446E0,-8.3933105E1,-2.5119287E1,5.9597218E1,-6.78254E0,-3.610059E2,5.0463757E1],"split_indices":[13,7,17,18,18,0,0,0,0,0,0],"split_type":[0,0,0,0,0,0,0,0,0,0,0],"sum_hessian":[1.144E3,1.136E3,8E0,9.96E2,1.4E2,5E0,3E0,7.7E1,9.19E2,1.1E1,1.29E2],"tree_param":{"num_deleted":"0","num_feature":"21","num_nodes":"11","size_leaf_vector":"0"}},{"base_weights":[-2.5380903E-1,-1.1802939E1,3.1878767E1,-7.3195057E0,-3.5024814E2,2.5341714E2,1.6165224E1,-1.1121674E1,3.4202582E2,-4.3395535E2,-1.6300839E2,5.526152E2,-1.73671E2,2.7263388E2,4.8326645E0],"categories":[],"categories_nodes":[],"categories_segments":[],"categories_sizes":[],"default_left":[1,1,1,1,1,1,1,0,0,0,0,0,0,0,0],"id":35,"left_children":[1,3,5,7,9,11,13,-1,-1,-1,-1,-1,-1,-1,-1],"loss_changes":[4.252896E5,1.2766018E6,1.0506928E6,1.1102525E6,1.01668125E5,2.6516515E6,8.2411325E5,0E0,0E0,0E0,0E0,0E0,0E0,0E0,0E0],"parents":[2147483647,0,0,1,1,2,2,3,3,4,4,5,5,6,6],"right_children":[2,4,6,8,10,12,14,-1,-1,-1,-1,-1,-1,-1,-1],"split_conditions":[9.6610165E-1,9.1784215E-1,1.1393216E-1,8.8888645E-1,5E-1,3.8381428E-1,9.834393E-1,-3.3365023E0,1.0260775E2,-1.3018661E2,-4.890252E1,1.6578456E2,-5.2101303E1,8.179017E1,1.4497994E0],"split_indices":[17,17,16,17,6,19,17,0,0,0,0,0,0,0,0],"split_type":[0,0,0,0,0,0,0,0,0,0,0,0,0,0,0],"sum_hessian":[1.144E3,8.42E2,3.02E2,8.32E2,1E1,1.9E1,2.83E2,8.24E2,8E0,6E0,4E0,1.1E1,8E0,1.1E1,2.72E2],"tree_param":{"num_deleted":"0","num_feature":"21","num_nodes":"15","size_leaf_vector":"0"}},{"base_weights":[-7.518081E-2,3.8091025E0,-8.89266E1,-6.6204004E0,5.739197E1,5.2244728E1,-4.35503E2,-1.3783852E2,-8.107329E-1,1.3451253E1,3.4061533E2,1.9299173E2,-1.4828404E2,-5.293974E2,-6.8417725E1],"categories":[],"categories_nodes":[],"categories_segments":[],"categories_sizes":[],"default_left":[1,1,1,1,1,1,1,0,0,0,0,0,0,0,0],"id":36,"left_children":[1,3,5,7,9,11,13,-1,-1,-1,-1,-1,-1,-1,-1],"loss_changes":[3.9550578E5,6.1398925E5,2.371232E6,7.0123525E5,2.22308E6,1.0164514E6,4.463215E5,0E0,0E0,0E0,0E0,0E0,0E0,0E0,0E0],"parents":[2147483647,0,0,1,1,2,2,3,3,4,4,5,5,6,6],"right_children":[2,4,6,8,10,12,14,-1,-1,-1,-1,-1,-1,-1,-1],"split_conditions":[1.6165767E0,1.0155189E0,5E-1,-3.4778976E0,5E-1,5E-1,5E-1,-4.1351555E1,-2.4321988E-1,4.035376E0,1.021846E2,5.7897522E1,-4.4485214E1,-1.5881923E2,-2.0525318E1],"split_indices":[16,16,0,18,0,2,12,0,0,0,0,0,0,0,0],"split_type":[0,0,0,0,0,0,0,0,0,0,0,0,0,0,0],"sum_hessian":[1.144E3,1.097E3,4.7E1,9.19E2,1.78E2,3.4E1,1.3E1,3.8E1,8.81E2,1.55E2,2.3E1,2E1,1.4E1,1E1,3E0],"tree_param":{"num_deleted":"0","num_feature":"21","num_nodes":"15","size_leaf_vector":"0"}},{"base_weights":[-1.4111285E-1,2.1940899E1,-1.7232235E1,4.3656358E-1,1.7109895E2,-8.656048E1,1.4961253E1,9.535455E0,-2.7581097E2,3.2327823E2,4.011903E1,-6.0506934E2,-6.788649E1,1.19945404E2,-3.1311564E0],"categories":[],"categories_nodes":[],"categories_segments":[],"categories_sizes":[],"default_left":[1,1,1,1,1,1,1,0,0,0,0,0,0,0,0],"id":37,"left_children":[1,3,5,7,9,11,13,-1,-1,-1,-1,-1,-1,-1,-1],"loss_changes":[4.3250834E5,1.6036978E6,1.443114E6,1.1035632E6,1.2427732E6,1.943862E6,8.3991756E5,0E0,0E0,0E0,0E0,0E0,0E0,0E0,0E0],"parents":[2147483647,0,0,1,1,2,2,3,3,4,4,5,5,6,6],"right_children":[2,4,6,8,10,12,14,-1,-1,-1,-1,-1,-1,-1,-1],"split_conditions":[-3.604982E-1,-4.7596347E-1,3.9824829E-1,-4.8239806E-1,-4.241292E-1,-3.3339942E0,8.343711E-1,2.8606365E0,-8.274329E1,9.6983475E1,1.2035709E1,-1.8152081E2,-2.0365948E1,3.5983624E1,-9.3934697E-1],"split_indices":[17,17,17,17,17,20,17,0,0,0,0,0,0,0,0],"split_type":[0,0,0,0,0,0,0,0,0,0,0,0,0,0,0],"sum_hessian":[1.144E3,4.99E2,6.45E2,4.37E2,6.2E1,2.04E2,4.41E2,4.24E2,1.3E1,2.8E1,3.4E1,6E0,1.98E2,6.4E1,3.77E2],"tree_param":{"num_deleted":"0","num_feature":"21","num_nodes":"15","size_leaf_vector":"0"}},{"base_weights":[-2.1886173E-1,-1.0653417E1,3.1012852E1,-8.881796E0,-1.7698633E2,5.0178528E1,-1.3484573E2,6.635527E1,-1.2480029E1,-3.4238965E2,5.6139683E1,7.5058205E1,-1.700255E2],"categories":[],"categories_nodes":[],"categories_segments":[],"categories_sizes":[],"default_left":[1,1,1,1,0,1,1,0,0,0,0,0,0],"id":38,"left_children":[1,3,5,7,-1,9,11,-1,-1,-1,-1,-1,-1],"loss_changes":[3.7347338E5,2.5155722E5,9.1907975E5,2.3121125E5,0E0,6.2298275E5,2.3429294E5,0E0,0E0,0E0,0E0,0E0,0E0],"parents":[2147483647,0,0,1,1,2,2,3,3,5,5,6,6],"right_children":[2,4,6,8,-1,10,12,-1,-1,-1,-1,-1,-1],"split_conditions":[5E-1,5E-1,5E-1,-1.4219004E0,-5.30959E1,-4.729941E-1,9.857192E-1,1.9906582E1,-3.7440088E0,-1.02716896E2,1.6841906E1,2.2517462E1,-5.1007652E1],"split_indices":[15,13,1,19,0,18,19,0,0,0,0,0,0],"split_type":[0,0,0,0,0,0,0,0,0,0,0,0,0],"sum_hessian":[1.144E3,8.58E2,2.86E2,8.5E2,8E0,2.57E2,2.9E1,3.8E1,8.12E2,3E0,2.54E2,4E0,2.5E1],"tree_param":{"num_deleted":"0","num_feature":"21","num_nodes":"13","size_leaf_vector":"0"}},{"base_weights":[-2.8521168E-1,-4.8600345E0,5.54047E1,-1.0877324E1,4.3217484E1,7.4400955E1,2.439494E0,-1.2727566E2,-5.709206E0,1.0313893E2,-1.21044495E2,5.4554893E1,1.0980913E2],"categories":[],"categories_nodes":[],"categories_segments":[],"categories_sizes":[],"default_left":[1,1,1,1,1,1,0,0,0,0,0,0,0],"id":39,"left_children":[1,3,5,7,9,11,-1,-1,-1,-1,-1,-1,-1],"loss_changes":[2.9198256E5,3.0683494E5,8.735272E4,5.6594325E5,1.1739366E6,3.8983E4,0E0,0E0,0E0,0E0,0E0,0E0,0E0],"parents":[2147483647,0,0,1,1,2,2,3,3,4,4,5,5],"right_children":[2,4,6,8,10,12,-1,-1,-1,-1,-1,-1,-1],"split_conditions":[5E-1,5E-1,5E-1,-3.4778976E0,5E-1,5E-1,7.318482E-1,-3.8182697E1,-1.7127619E0,3.094168E1,-3.631335E1,1.6366468E1,3.294274E1],"split_indices":[8,9,11,18,11,15,0,0,0,0,0,0,0],"split_type":[0,0,0,0,0,0,0,0,0,0,0,0,0],"sum_hessian":[1.144E3,1.058E3,8.6E1,9.41E2,1.17E2,6.3E1,2.3E1,3.9E1,9.02E2,8.6E1,3.1E1,4.2E1,2.1E1],"tree_param":{"num_deleted":"0","num_feature":"21","num_nodes":"13","size_leaf_vector":"0"}},{"base_weights":[-1.9533211E-1,2.6261482E0,-8.718555E1,-2.853617E0,4.6525354E2,4.43975E2,-1.6745483E2,1.6606044E0,-3.0823163E2,-2.9421768E2,1.4084521E2],"categories":[],"categories_nodes":[],"categories_segments":[],"categories_sizes":[],"default_left":[1,1,1,1,0,0,1,0,0,0,0],"id":40,"left_children":[1,3,5,7,-1,-1,9,-1,-1,-1,-1],"loss_changes":[2.812591E5,2.815277E6,1.6092374E6,1.5141531E6,0E0,0E0,1.2920309E6,0E0,0E0,0E0,0E0],"parents":[2147483647,0,0,1,1,2,2,3,3,6,6],"right_children":[2,4,6,8,-1,-1,10,-1,-1,-1,-1],"split_conditions":[1.4315376E0,1.3872104E0,-1.22422E0,1.3695152E0,1.3957607E2,1.331925E2,5E-1,4.981813E-1,-9.246949E1,-8.8265305E1,4.2253567E1],"split_indices":[17,17,18,17,0,0,15,0,0,0,0],"split_type":[0,0,0,0,0,0,0,0,0,0,0],"sum_hessian":[1.144E3,1.109E3,3.5E1,1.097E3,1.2E1,4E0,3.1E1,1.082E3,1.5E1,2.2E1,9E0],"tree_param":{"num_deleted":"0","num_feature":"21","num_nodes":"11","size_leaf_vector":"0"}},{"base_weights":[-1.8883051E-2,-1.2679358E1,2.1299383E1,9.47194E0,-6.75148E1,6.160034E1,-2.024852E1,-2.8243513E0,3.1271674E2,2.0959264E2,-1.13839005E2,1.4487329E2,-4.6864628E1,-5.0883768E2,1.5128156E0],"categories":[],"categories_nodes":[],"categories_segments":[],"categories_sizes":[],"default_left":[1,1,1,1,1,1,1,0,0,0,0,0,0,0,0],"id":41,"left_children":[1,3,5,7,9,11,13,-1,-1,-1,-1,-1,-1,-1,-1],"loss_changes":[3.0930484E5,8.739917E5,7.162248E5,1.9137508E6,2.6810738E6,1.9667762E6,2.244196E6,0E0,0E0,0E0,0E0,0E0,0E0,0E0,0E0],"parents":[2147483647,0,0,1,1,2,2,3,3,4,4,5,5,6,6],"right_children":[2,4,6,8,10,12,14,-1,-1,-1,-1,-1,-1,-1,-1],"split_conditions":[4.1446108E-1,-1.8659672E-1,-2.1809064E-1,-1.1598341E-1,-3.5978323E-1,1.1039093E0,-1.3841356E0,-8.473054E-1,9.3815025E1,6.2877792E1,-3.4151703E1,4.346199E1,-1.4059389E1,-1.526513E2,4.538447E-1],"split_indices":[16,16,19,17,17,17,17,0,0,0,0,0,0,0,0],"split_type":[0,0,0,0,0,0,0,0,0,0,0,0,0,0,0],"sum_hessian":[1.144E3,7.18E2,4.26E2,5.12E2,2.06E2,2.16E2,2.1E2,4.93E2,1.9E1,2.9E1,1.77E2,1.22E2,9.4E1,8E0,2.02E2],"tree_param":{"num_deleted":"0","num_feature":"21","num_nodes":"15","size_leaf_vector":"0"}},{"base_weights":[-1.4112821E-2,2.4797251E0,-5.7060364E1,-8.055947E0,3.5463696E1,7.7231575E1,-5.1579065E2,-2.7392242E1,4.83567E1,3.6458072E2,1.5732666E1,-1.13990234E2,5.56957E2,1.6383119E2,-1.3641031E3],"categories":[],"categories_nodes":[],"categories_segments":[],"categories_sizes":[],"default_left":[1,1,1,1,1,1,1,0,0,0,0,0,0,0,0],"id":42,"left_children":[1,3,5,7,9,11,13,-1,-1,-1,-1,-1,-1,-1,-1],"loss_changes":[1.6303389E5,3.818498E5,2.9968168E6,9.099706E5,1.7216198E6,3.5493778E6,6.565331E6,0E0,0E0,0E0,0E0,0E0,0E0,0E0,0E0],"parents":[2147483647,0,0,1,1,2,2,3,3,4,4,5,5,6,6],"right_children":[2,4,6,8,10,12,14,-1,-1,-1,-1,-1,-1,-1,-1],"split_conditions":[1.6165767E0,5E-1,5E-1,7.1498996E-1,-8.199955E-1,5E-1,5E-1,-8.217673E0,1.450701E1,1.0937422E2,4.7198E0,-3.419707E1,1.670871E2,4.914936E1,-4.0923096E2],"split_indices":[16,14,14,16,19,2,2,0,0,0,0,0,0,0,0],"split_type":[0,0,0,0,0,0,0,0,0,0,0,0,0,0,0],"sum_hessian":[1.144E3,1.097E3,4.7E1,8.32E2,2.65E2,3.7E1,1E1,6.2E2,2.12E2,1.4E1,2.51E2,2.7E1,1E1,6E0,4E0],"tree_param":{"num_deleted":"0","num_feature":"21","num_nodes":"15","size_leaf_vector":"0"}},{"base_weights":[-1.0305165E-1,-7.3248816E0,2.151247E1,1.6208435E1,-2.6836943E1,-7.1293625E1,5.8350273E1,1.1086636E2,5.6747212E0,-1.7749348E2,1.3127313E0,-9.532921E1,7.685807E1,3.433623E2,4.051184E1],"categories":[],"categories_nodes":[],"categories_segments":[],"categories_sizes":[],"default_left":[1,1,1,1,1,1,1,0,0,0,0,0,0,0,0],"id":43,"left_children":[1,3,5,7,9,11,13,-1,-1,-1,-1,-1,-1,-1,-1],"loss_changes":[1.7889622E5,3.9487362E5,9.853478E5,3.8823972E5,1.9934714E6,2.9932162E5,1.0334283E6,0E0,0E0,0E0,0E0,0E0,0E0,0E0,0E0],"parents":[2147483647,0,0,1,1,2,2,3,3,4,4,5,5,6,6],"right_children":[2,4,6,8,10,12,14,-1,-1,-1,-1,-1,-1,-1,-1],"split_conditions":[5E-1,-1.8659672E-1,-7.876545E-1,-1.975446E0,1.1393216E-1,5E-1,-2.1809064E-1,3.325991E1,1.7024164E0,-5.3248047E1,3.938194E-1,-2.8598764E1,2.3057423E1,1.030087E2,1.2153553E1],"split_indices":[15,16,16,18,16,5,19,0,0,0,0,0,0,0,0],"split_type":[0,0,0,0,0,0,0,0,0,0,0,0,0,0,0],"sum_hessian":[1.144E3,8.58E2,2.86E2,3.89E2,4.69E2,8.1E1,2.05E2,3.8E1,3.51E2,7.3E1,3.96E2,7E1,1.1E1,1.1E1,1.94E2],"tree_param":{"num_deleted":"0","num_feature":"21","num_nodes":"15","size_leaf_vector":"0"}},{"base_weights":[8.183508E-3,5.180124E0,-3.3307224E1,-1.0285804E0,8.335584E1,2.730016E2,-6.111502E1,2.015436E1,-6.3572933E1,2.1796254E2,-2.0054793E2,1.450217E2,4.4876505E2,-4.394281E1,-4.4302798E2],"categories":[],"categories_nodes":[],"categories_segments":[],"categories_sizes":[],"default_left":[1,1,1,1,1,1,1,0,0,0,0,0,0,0,0],"id":44,"left_children":[1,3,5,7,9,11,13,-1,-1,-1,-1,-1,-1,-1,-1],"loss_changes":[1.974621E5,4.815727E5,1.3284216E6,1.2201646E6,2.8334322E6,2.2734375E5,9.118094E5,0E0,0E0,0E0,0E0,0E0,0E0,0E0,0E0],"parents":[2147483647,0,0,1,1,2,2,3,3,4,4,5,5,6,6],"right_children":[2,4,6,8,10,12,14,-1,-1,-1,-1,-1,-1,-1,-1],"split_conditions":[1.3160477E0,1.0155189E0,-1.975446E0,5E-1,5E-1,1.6165767E0,5E-1,6.046308E0,-1.907188E1,6.538876E1,-6.016438E1,4.350651E1,1.3462952E2,-1.3182843E1,-1.329084E2],"split_indices":[16,16,18,11,12,16,10,0,0,0,0,0,0,0,0],"split_type":[0,0,0,0,0,0,0,0,0,0,0,0,0,0,0],"sum_hessian":[1.144E3,9.91E2,1.53E2,9.19E2,7.2E1,1.2E1,1.41E2,6.87E2,2.32E2,4.9E1,2.3E1,8E0,4E0,1.36E2,5E0],"tree_param":{"num_deleted":"0","num_feature":"21","num_nodes":"15","size_leaf_vector":"0"}},{"base_weights":[2.7191935E-2,-5.68367E0,3.236645E1,-6.614841E-2,-4.2094305E2,1.7299861E2,-7.4586515E0,8.583058E0,-6.578408E1,-6.078333E2,1.5151831E2,2.942873E2,-3.1861987E2,-1.1765495E2,4.357253E1],"categories":[],"categories_nodes":[],"categories_segments":[],"categories_sizes":[],"default_left":[1,1,1,1,1,1,1,0,0,0,0,0,0,0,0],"id":45,"left_children":[1,3,5,7,9,11,13,-1,-1,-1,-1,-1,-1,-1,-1],"loss_changes":[2.1164834E5,2.2720498E6,9.64609E5,5.473731E5,1.4829348E6,2.3596205E6,7.6429194E5,0E0,0E0,0E0,0E0,0E0,0E0,0E0,0E0],"parents":[2147483647,0,0,1,1,2,2,3,3,4,4,5,5,6,6],"right_children":[2,4,6,8,10,12,14,-1,-1,-1,-1,-1,-1,-1,-1],"split_conditions":[1.162893E0,1.1498451E0,1.2515476E0,5E-1,5E-1,5E-1,1.0155189E0,2.5749176E0,-1.9735226E1,-1.8235E2,4.5455494E1,8.8286194E1,-9.558597E1,-3.5296486E1,1.3071759E1],"split_indices":[17,17,17,0,14,11,16,0,0,0,0,0,0,0,0],"split_type":[0,0,0,0,0,0,0,0,0,0,0,0,0,0,0],"sum_hessian":[1.144E3,9.73E2,1.71E2,9.61E2,1.2E1,3.7E1,1.34E2,8.5E2,1.11E2,9E0,3E0,3E1,7E0,4.2E1,9.2E1],"tree_param":{"num_deleted":"0","num_feature":"21","num_nodes":"15","size_leaf_vector":"0"}},{"base_weights":[-1.4143866E-1,2.1269136E1,-8.873834E0,1.5145421E2,-9.78333E0,-2.0635505E0,-9.1442696E1,-3.3646103E2,2.4803964E2,-4.8820087E1,1.50231E2,3.384721E0,-1.2906474E2,7.0571876E0,-4.6325436E2],"categories":[],"categories_nodes":[],"categories_segments":[],"categories_sizes":[],"default_left":[1,1,1,1,1,1,1,0,0,0,0,0,0,0,0],"id":46,"left_children":[1,3,5,7,9,11,13,-1,-1,-1,-1,-1,-1,-1,-1],"loss_changes":[2.1426436E5,1.3436142E6,4.5753766E5,3.099488E6,1.6876268E6,5.2146534E5,2.2739205E6,0E0,0E0,0E0,0E0,0E0,0E0,0E0,0E0],"parents":[2147483647,0,0,1,1,2,2,3,3,4,4,5,5,6,6],"right_children":[2,4,6,8,10,12,14,-1,-1,-1,-1,-1,-1,-1,-1],"split_conditions":[-8.199955E-1,5E-1,5E-1,-1.9754459E0,1.0155189E0,1.6165767E0,7.1498996E-1,-1.0093832E2,7.4411896E1,-1.4646027E1,4.50693E1,1.0154164E0,-3.8719425E1,2.1171563E0,-1.3897632E2],"split_indices":[19,11,3,18,16,16,16,0,0,0,0,0,0,0,0],"split_type":[0,0,0,0,0,0,0,0,0,0,0,0,0,0,0],"sum_hessian":[1.144E3,3.31E2,8.13E2,6.3E1,2.68E2,7.52E2,6.1E1,1E1,5.3E1,2.16E2,5.2E1,7.22E2,3E1,4.9E1,1.2E1],"tree_param":{"num_deleted":"0","num_feature":"21","num_nodes":"15","size_leaf_vector":"0"}},{"base_weights":[-2.4810658E-1,1.48101425E1,-1.1902714E1,-1.4400641E1,8.3064644E1,-6.0594368E1,1.0707449E1,-2.4240625E1,1.338537E2,6.2613373E1,2.9377313E2,4.0973507E1,-1.4529782E2,1.8004614E2,2.675578E0],"categories":[],"categories_nodes":[],"categories_segments":[],"categories_sizes":[],"default_left":[1,1,1,1,1,1,1,0,0,0,0,0,0,0,0],"id":47,"left_children":[1,3,5,7,9,11,13,-1,-1,-1,-1,-1,-1,-1,-1],"loss_changes":[2.0112147E5,9.980799E5,7.118472E5,5.1529066E5,6.279943E5,1.7695988E6,6.006853E5,0E0,0E0,0E0,0E0,0E0,0E0,0E0,0E0],"parents":[2147483647,0,0,1,1,2,2,3,3,4,4,5,5,6,6],"right_children":[2,4,6,8,10,12,14,-1,-1,-1,-1,-1,-1,-1,-1],"split_conditions":[-3.604982E-1,-6.5899205E-1,3.9824829E-1,8.652544E-1,5E-1,-1.8659672E-1,1.1393216E-1,-7.2721877E0,4.0156113E1,1.8784012E1,8.813194E1,1.2292052E1,-4.3589348E1,5.4013844E1,8.0267346E-1],"split_indices":[17,17,17,16,7,16,16,0,0,0,0,0,0,0,0],"split_type":[0,0,0,0,0,0,0,0,0,0,0,0,0,0,0],"sum_hessian":[1.144E3,4.99E2,6.45E2,3.5E2,1.49E2,2.04E2,4.41E2,3.29E2,2.1E1,1.37E2,1.2E1,9.3E1,1.11E2,1.9E1,4.22E2],"tree_param":{"num_deleted":"0","num_feature":"21","num_nodes":"15","size_leaf_vector":"0"}},{"base_weights":[-3.1041894E-2,-4.5934658E1,3.3214984E0,-9.908005E0,-5.699422E2,1.6697775E0,2.5343666E2,-7.731721E1,3.123442E2,5.568164E0,-5.5397346E1,6.4567285E2,-2.0215869E2],"categories":[],"categories_nodes":[],"categories_segments":[],"categories_sizes":[],"default_left":[1,1,1,1,0,1,1,0,0,0,0,0,0],"id":48,"left_children":[1,3,5,7,-1,9,11,-1,-1,-1,-1,-1,-1],"loss_changes":[1.7636088E5,1.4668555E6,4.4078947E5,1.6316342E6,0E0,2.365713E5,1.3814352E6,0E0,0E0,0E0,0E0,0E0,0E0],"parents":[2147483647,0,0,1,1,2,2,3,3,5,5,6,6],"right_children":[2,4,6,8,-1,10,12,-1,-1,-1,-1,-1,-1],"split_conditions":[-4.5516133E-1,1.4313588E0,1.5468242E0,1.0980109E0,-1.7098267E2,1.3257241E0,5E-1,-2.3195164E1,9.370326E1,1.6704493E0,-1.6619205E1,1.9370186E2,-6.064761E1],"split_indices":[20,17,17,17,0,17,12,0,0,0,0,0,0],"split_type":[0,0,0,0,0,0,0,0,0,0,0,0,0],"sum_hessian":[1.144E3,7.7E1,1.067E3,7.3E1,4E0,1.061E3,6E0,6.1E1,1.2E1,9.94E2,6.7E1,3E0,3E0],"tree_param":{"num_deleted":"0","num_feature":"21","num_nodes":"13","size_leaf_vector":"0"}},{"base_weights":[-6.7173853E-3,1.0775762E0,-1.3698839E2,-2.134154E0,4.1364315E1,-1.6610905E2,-5.9060303E1,1.4608851E1,-1.5479286E1,6.52007E1,-2.793755E2],"categories":[],"categories_nodes":[],"categories_segments":[],"categories_sizes":[],"default_left":[1,1,1,1,1,0,0,0,0,0,0],"id":49,"left_children":[1,3,5,7,9,-1,-1,-1,-1,-1,-1],"loss_changes":[1.7021258E5,1.4720488E5,1.0613406E4,2.3572939E5,6.604188E5,0E0,0E0,0E0,0E0,0E0,0E0],"parents":[2147483647,0,0,1,1,2,2,3,3,4,4],"right_children":[2,4,6,8,10,-1,-1,-1,-1,-1,-1],"split_conditions":[5E-1,5E-1,-4.829343E-1,-3.604982E-1,1.3160477E0,-4.9832718E1,-1.7718092E1,4.3826556E0,-4.643786E0,1.9560211E1,-8.381265E1],"split_indices":[13,10,17,17,16,0,0,0,0,0,0],"split_type":[0,0,0,0,0,0,0,0,0,0,0],"sum_hessian":[1.144E3,1.136E3,8E0,1.053E3,8.3E1,5E0,3E0,4.67E2,5.86E2,7.8E1,5E0],"tree_param":{"num_deleted":"0","num_feature":"21","num_nodes":"11","size_leaf_vector":"0"}},{"base_weights":[-1.2024768E-1,-3.625135E0,3.821571E1,5.917503E-1,-1.9194395E2,3.5734116E2,-2.0626942E1,-3.8872352E0,7.989975E1,-6.7313965E1,-2.0727275E2,2.5744815E2,-5.843686E1],"categories":[],"categories_nodes":[],"categories_segments":[],"categories_sizes":[],"default_left":[1,1,1,1,1,0,1,0,0,0,0,0,0],"id":50,"left_children":[1,3,5,7,9,-1,11,-1,-1,-1,-1,-1,-1],"loss_changes":[1.5398439E5,8.339384E5,1.8100768E6,3.6547612E5,2.99875E4,0E0,8.7719206E5,0E0,0E0,0E0,0E0,0E0,0E0],"parents":[2147483647,0,0,1,1,2,2,3,3,4,4,6,6],"right_children":[2,4,6,8,10,-1,12,-1,-1,-1,-1,-1,-1],"split_conditions":[1.2838993E0,1.2660254E0,1.3257241E0,1.162893E0,-1.22422E0,1.07202354E2,-1.22422E0,-1.1661706E0,2.3969925E1,-2.0194191E1,-6.2181828E1,7.723445E1,-1.753106E1],"split_indices":[17,17,17,17,18,0,18,0,0,0,0,0,0],"split_type":[0,0,0,0,0,0,0,0,0,0,0,0,0],"sum_hessian":[1.144E3,1.049E3,9.5E1,1.027E3,2.2E1,1.4E1,8.1E1,9.73E2,5.4E1,3E0,1.9E1,9E0,7.2E1],"tree_param":{"num_deleted":"0","num_feature":"21","num_nodes":"13","size_leaf_vector":"0"}},{"base_weights":[9.457731E-3,-6.028934E0,2.0792723E1,1.0672646E0,-5.4706997E1,2.980872E0,1.9433406E2,-1.662607E1,4.9463615E1,2.292713E0,-2.1248262E2,2.6017636E2,-1.4489325E1,-2.2513916E1,2.2638445E2],"categories":[],"categories_nodes":[],"categories_segments":[],"categories_sizes":[],"default_left":[1,1,1,1,1,1,1,0,0,0,0,0,0,0,0],"id":51,"left_children":[1,3,5,7,9,11,13,-1,-1,-1,-1,-1,-1,-1,-1],"loss_changes":[1.4381998E5,3.0679953E5,7.969226E5,6.653056E5,1.0167147E6,1.0596849E6,1.7189825E5,0E0,0E0,0E0,0E0,0E0,0E0,0E0,0E0],"parents":[2147483647,0,0,1,1,2,2,3,3,4,4,5,5,6,6],"right_children":[2,4,6,8,10,12,14,-1,-1,-1,-1,-1,-1,-1,-1],"split_conditions":[9.857192E-1,1.3160477E0,5E-1,8.665441E-1,3.8381428E-1,-1.2994134E0,-7.876545E-1,-4.987821E0,1.4839086E1,6.878139E-1,-6.374479E1,7.805291E1,-4.3467975E0,-6.754175E0,6.791534E1],"split_indices":[19,16,7,17,19,17,16,0,0,0,0,0,0,0,0],"split_type":[0,0,0,0,0,0,0,0,0,0,0,0,0,0,0],"sum_hessian":[1.144E3,8.87E2,2.57E2,7.75E2,1.12E2,2.34E2,2.3E1,5.68E2,2.07E2,8.3E1,2.9E1,1.4E1,2.2E2,3E0,2E1],"tree_param":{"num_deleted":"0","num_feature":"21","num_nodes":"15","size_leaf_vector":"0"}},{"base_weights":[7.822308E-2,-2.0670128E0,4.9148865E1,1.5683203E0,-1.5815825E2,2.6835788E2,-3.137519E1,-2.447183E0,1.7015672E2,-3.4737793E1,-5.432E2,-3.8191055E2,2.4376434E1],"categories":[],"categories_nodes":[],"categories_segments":[],"categories_sizes":[],"default_left":[1,1,1,1,1,0,1,0,0,0,0,0,0],"id":52,"left_children":[1,3,5,7,9,-1,11,-1,-1,-1,-1,-1,-1],"loss_changes":[1.2063356E5,6.233011E5,8.556965E5,7.2747925E5,1.1691811E6,0E0,7.128546E5,0E0,0E0,0E0,0E0,0E0,0E0],"parents":[2147483647,0,0,1,1,2,2,3,3,4,4,6,6],"right_children":[2,4,6,8,10,-1,12,-1,-1,-1,-1,-1,-1],"split_conditions":[1.3872104E0,1.3643317E0,1.4315376E0,1.2838993E0,9.857192E-1,8.050737E1,-1.1748695E0,-7.341549E-1,5.104702E1,-1.0421338E1,-1.6296E2,-1.1457317E2,7.3129306E0],"split_indices":[17,17,17,17,19,0,20,0,0,0,0,0,0],"split_type":[0,0,0,0,0,0,0,0,0,0,0,0,0],"sum_hessian":[1.144E3,1.097E3,4.7E1,1.073E3,2.4E1,1.2E1,3.5E1,1.049E3,2.4E1,1.9E1,5E0,4E0,3.1E1],"tree_param":{"num_deleted":"0","num_feature":"21","num_nodes":"13","size_leaf_vector":"0"}},{"base_weights":[-7.588786E-2,1.6156236E0,-7.017683E1,7.4435525E0,-2.3795183E1,1.23692665E2,-1.3145824E2,2.5866096E0,2.2369101E2,-1.3781596E2,4.8516498E0,-4.4230908E2,-6.6730347E0],"categories":[],"categories_nodes":[],"categories_segments":[],"categories_sizes":[],"default_left":[1,1,1,1,1,0,1,0,0,0,0,0,0],"id":53,"left_children":[1,3,5,7,9,-1,11,-1,-1,-1,-1,-1,-1],"loss_changes":[1.3588353E5,1.6589248E5,3.370365E5,9.5624606E5,6.8333256E5,0E0,8.1162975E5,0E0,0E0,0E0,0E0,0E0,0E0],"parents":[2147483647,0,0,1,1,2,2,3,3,4,4,6,6],"right_children":[2,4,6,8,10,-1,12,-1,-1,-1,-1,-1,-1],"split_conditions":[5E-1,1.1083777E0,-5.251166E-1,1.099977E0,1.162893E0,3.71078E1,2.5704458E-1,7.759829E-1,6.710731E1,-4.134479E1,1.455495E0,-1.3269273E2,-2.0019104E0],"split_indices":[6,17,17,17,17,0,17,0,0,0,0,0,0],"split_type":[0,0,0,0,0,0,0,0,0,0,0,0,0],"sum_hessian":[1.144E3,1.118E3,2.6E1,9.1E2,2.08E2,6E0,2E1,8.91E2,1.9E1,4.1E1,1.67E2,5E0,1.5E1],"tree_param":{"num_deleted":"0","num_feature":"21","num_nodes":"13","size_leaf_vector":"0"}},{"base_weights":[-1.1414267E-1,5.505966E0,-1.7092386E1,1.9907429E0,1.7990935E2,-4.7856817E0,-3.2320615E2,1.5430913E1,-4.8101906E1,4.351917E2,-1.6168225E2,-3.7224573E2,6.201132E0,-6.7117325E1,-6.1708923E2],"categories":[],"categories_nodes":[],"categories_segments":[],"categories_sizes":[],"default_left":[1,1,1,1,1,1,1,0,0,0,0,0,0,0,0],"id":54,"left_children":[1,3,5,7,9,11,13,-1,-1,-1,-1,-1,-1,-1,-1],"loss_changes":[1.0934952E5,5.274924E5,1.07212E6,5.696416E5,1.5528021E6,1.1125424E6,7.864445E5,0E0,0E0,0E0,0E0,0E0,0E0,0E0,0E0],"parents":[2147483647,0,0,1,1,2,2,3,3,4,4,5,5,6,6],"right_children":[2,4,6,8,10,12,14,-1,-1,-1,-1,-1,-1,-1,-1],"split_conditions":[5E-1,1.4973135E0,1.4973135E0,1.023298E0,5E-1,-3.4778976E0,5E-1,4.629274E0,-1.44305725E1,1.3055753E2,-4.8504677E1,-1.1167372E2,1.8603396E0,-2.0135199E1,-1.8512677E2],"split_indices":[12,17,17,17,2,18,0,0,0,0,0,0,0,0,0],"split_type":[0,0,0,0,0,0,0,0,0,0,0,0,0,0,0],"sum_hessian":[1.144E3,8.6E2,2.84E2,8.44E2,1.6E1,2.74E2,1E1,6.66E2,1.78E2,9E0,7E0,7E0,2.67E2,6E0,4E0],"tree_param":{"num_deleted":"0","num_feature":"21","num_nodes":"15","size_leaf_vector":"0"}}]},"name":"gbtree"},"learner_model_param":{"base_score":"5E-1","boost_from_average":"1","num_class":"0","num_feature":"21","num_target":"1"},"objective":{"name":"reg:squarederror","reg_loss_param":{"scale_pos_weight":"1"}}},"version":[1,7,5]}